<?xml version="1.0" encoding="utf-8"?><HelpTOCNode Title="HOGDescriptor Methods" Url="html/8aa4239f-a841-90a5-7ad3-a78e3c9eb45f.htm"><HelpTOCNode Title="CheckDetectorSize Method " Url="html/6c46e09a-710c-9eed-31b1-325fdebef1dd.htm" /><HelpTOCNode Title="Compute Method " Url="html/78e106d3-619f-c914-0c4d-54e984b87698.htm" /><HelpTOCNode Title="ComputeGradient Method " Url="html/42cb9f12-043f-0989-2aaf-6aca04daa765.htm" /><HelpTOCNode Title="Detect Method " Url="html/d7c4ae57-b6fd-a785-3311-f976bd7d75d8.htm" HasChildren="true" /><HelpTOCNode Title="DetectMultiScale Method " Url="html/6f656d68-b754-2828-0945-2382ef66fdaa.htm" HasChildren="true" /><HelpTOCNode Title="DetectMultiScaleROI Method " Url="html/567dbb06-6d4b-5aae-f571-9a9aba8fb099.htm" /><HelpTOCNode Title="DetectROI Method " Url="html/6772575a-6b7d-cec3-c72f-0fe71ce4ac5f.htm" /><HelpTOCNode Title="Dispose Method " Url="html/ee2befcd-e22c-f26e-82aa-b360c48cf7ea.htm" HasChildren="true" /><HelpTOCNode Title="GetDaimlerPeopleDetector Method " Url="html/97989fe4-ccce-017b-3d66-eec1baaa4ee2.htm" /><HelpTOCNode Title="GetDefaultPeopleDetector Method " Url="html/7c28a1bf-bfad-ae6c-e780-fb206f045f35.htm" /><HelpTOCNode Title="GetDescriptorSize Method " Url="html/b1035065-bec0-503f-3ab6-3de728ab82fb.htm" /><HelpTOCNode Title="GetWinSigma Method " Url="html/4f6d3d1a-863f-b42b-0dac-495e2094323a.htm" /><HelpTOCNode Title="GroupRectangles Method " Url="html/1a7cfd17-d829-d056-1d48-f760e575c88c.htm" /><HelpTOCNode Title="Load Method " Url="html/a9b74da0-e003-e015-35f3-ed1026be2b9f.htm" /><HelpTOCNode Title="ReadALTModel Method " Url="html/5c911ba6-cdb8-368c-6eb1-5f32a6079bc0.htm" /><HelpTOCNode Title="Save Method " Url="html/3d23be56-90af-cbf3-6ccc-5d3847d8a3f5.htm" /><HelpTOCNode Title="SetSVMDetector Method " Url="html/b9c9466d-b9c3-1f97-93fa-0fdfc6e1671b.htm" /></HelpTOCNode>